1.2127915031145233,-0.21435365489869046,-5.747226993729572,-0.6961507102919312,-16.151012474309116,-0.5850888056118271,-6.616402112782678,-0.9068813064139677,2.059480853270703,-0.690185871836726,-32.020662718048996,-0.7150088314592958,-20.468288066925687,-0.9325847841545611,-19.306487128219562,-0.8684736480848751
0.10644424873248703,-0.8647238766820927,1.0441934701706457,-0.10093964824878263,11.51098259193044,-0.10109911408391828,0.36052439485390636,-0.10024260023299518,3.094294347389588,-0.10015669759836608,16.642390080969157,-0.10021911319311881,0.15962491672919119,-0.10000028913867996,0.5017290298795052,-0.1005875232635648
0.10316948088513017,-0.8886299628736977,0.8609949195212702,-0.10122356107205552,10.43051420512863,-0.10116144991997326,0.2521896065872294,-0.100174035192987,3.0938681070621534,-0.1001009168697249,8.5916930112539,-0.10038009955683617,0.3094952269295908,-0.10049658753584259,0.39758209240840486,-0.10118240868500201
0.11747250203584192,-0.13173539835062195,0.7534511043171208,-0.10276718871432708,3.8363371081052744,-0.10251873510265964,0.48285109387436165,-0.10201586777256935,1.1471628085832186,-0.10181161072956298,3.0276654300445847,-0.10195845352633516,0.48404657037907417,-0.10179654307532796,0.5306441966460572,-0.10266710193450461
0.10192403024181944,0.15568200099319424,0.7955572520387636,-0.10105523047932786,4.264056004473038,-0.10163302557990547,0.14866378081951848,-0.10002804359993803,2.374719860006308,-0.09960916770963904,-2.4954471644641862,-0.09991043529014153,0.4443128224133245,-0.09998406744590418,0.7463443504782417,-0.1009149822711363
0.1218055618547393,-0.04044178118965146,0.15715966458566452,-0.10274351089608824,4.607678334057122,-0.10341867549631714,0.17361560832514913,-0.10257738812108398,1.0568887608954993,-0.10202834798665446,0.6048538286859493,-0.10211813467500316,0.4821864815334479,-0.1020332033227104,0.5806293281784493,-0.1030379506018857
0.11013792103900051,0.6063172534488437,0.33407219486731854,-0.10251992188496295,4.7108182832262875,-0.10260055087273608,0.048716862086136695,-0.1014733045685432,0.1703725994478485,-0.10102678979021255,0.07340248863808688,-0.10111651900061458,0.7577161065764528,-0.10143951944199275,0.3126575265317805,-0.10159291137934942
0.11239521528708717,-0.7109487484930909,1.493702921431994,-0.10061097151017999,10.327997861009738,-0.1017789164128347,0.6358453982109067,-0.10067513078637111,0.7172388227283056,-0.1001756650027991,7.5745218481696766,-0.10035447574633725,0.47753970756127057,-0.10027188508032381,0.792797959231302,-0.10124829115100656
0.10418248712180801,-0.577416266730502,0.977594527812087,-0.1002263506053854,13.553282393235266,-0.10064130916604033,0.033273548613590824,-0.09960411819388891,5.989830081064922,-0.09994835789725937,8.806918096301876,-0.09996124698826996,0.44186238576282794,-0.09965167795383152,0.22114692574397576,-0.10020501816594297
0.0672862681857421,-1.3925891221323323,0.8594911956849928,-0.11832661914297683,12.810643458673601,-0.11830506867121347,0.35676376276419014,-0.11734159594947363,3.0751467218445585,-0.1171074234414844,7.960299830234667,-0.11753084562555366,0.4624580802727448,-0.11743428129675976,0.5083175005306971,-0.11810489010482038
0.1462835094275782,1.4474402585160542,-0.3248649096344228,-0.10947730733486417,-2.9819075062130875,-0.1064046183142016,0.05720530043795834,-0.1052567859516119,-3.0735179127662597,-0.10405627129249319,-14.49353614586249,-0.10511194612184832,0.42367608656569145,-0.10622245099857365,0.4875711041916139,-0.10845195622543904
0.1821617390337965,0.5563572591878647,-0.28259706538980817,-0.1148481911735763,-0.9236561283732876,-0.11559619059926657,-0.2979661271776355,-0.11378545298922592,-2.72765128864281,-0.1103719767929453,-10.240756480471253,-0.11225320134674366,0.36474976133173936,-0.11591982345617542,4.537796125353661,-0.12468577742373768
0.11792976372953094,0.18057353964983194,-0.481340512722895,-0.11671744604719092,-2.5053048463592087,-0.12050082201667257,0.33490640979498526,-0.11593853848923882,-1.8354417034999708,-0.11307105334230932,-1.7551500938457065,-0.11339436176720595,0.30683915297810654,-0.11625342854061028,1.754807230661979,-0.12075154001911804
0.1754368721129004,-0.19822186751592225,-0.026816891330761657,-0.1096344367828908,-4.134259115076668,-0.12113965280797565,0.3071113196905981,-0.11646660746955316,-1.6036247088867193,-0.11471223472826843,-0.4559441395675647,-0.11540355139918253,0.43929503648930024,-0.11606605836595661,1.356530059540156,-0.12206290121907544
0.13285690770032532,0.553538121507056,-0.25532816051146306,-0.11041154362695407,-7.447600124816349,-0.12192989787666235,-0.5076841773400702,-0.11713495629144147,-1.9851086603560957,-0.11460801712717004,-7.268108709334534,-0.11492616008915466,0.21322796735326524,-0.11581166243553445,2.400942428742282,-0.11531757686998408
0.14297136842680694,0.7038351594744499,-0.12908008523493572,-0.1002075924860908,-1.6324099810031425,-0.10572150975867331,-0.3187267861088809,-0.10133138045914145,-4.268432972186226,-0.10094492860569254,-12.462473472345028,-0.10107886484982115,0.4744162745037078,-0.10074801797924779,2.8173735585804973,-0.10211523235794151
0.10488669070318368,0.09440869893919931,0.9374081160104845,-0.10121332633777548,8.42868657192456,-0.10180378329731303,0.0400785640079199,-0.09975739691195025,-0.03448559450744438,-0.099761103292849,5.844141109093851,-0.09982151886118246,0.20063724550748266,-0.09978335746331538,0.3526280185836695,-0.10046395562086302
0.11253627025962633,-0.02178941139048088,0.6193840087067242,-0.10238619814966907,8.625570826175489,-0.10213680407769303,0.5604336992439061,-0.1009583169410706,1.4895860742497768,-0.10109562359684052,1.3162750624966404,-0.10129232487893022,0.2831948977040212,-0.10095335157136245,0.5044860721698494,-0.10188999396231185
-0.0037141202026373657,1.2107505623278987,-0.18676079799015308,-0.16391283112688745,-2.3582085894286657,-0.16706291635291012,0.10827105870417461,-0.1619082058323346,-2.622944169380299,-0.16002287358686934,-10.326749830644903,-0.16207827920270945,0.5258554175215927,-0.16351212628180745,4.783977559401388,-0.1703451158585116
0.1616017951860148,-0.5456944364968181,-0.18076768583515496,-0.13198759732791865,-9.187984478546053,-0.13644998302416456,0.04325939845634096,-0.13953024138198195,-1.3790977081341154,-0.13394294793343522,1.035278463096189,-0.13941885158879805,0.5194264537768384,-0.14887293835899051,3.686217448301075,-0.1636893314960869
0.21220530726543285,-0.653563063287365,0.485642963688778,-0.15558767185818265,-7.770791407263062,-0.1775392281218289,-0.28505412199014746,-0.21143026322932743,-0.505064365727274,-0.20285574870867032,6.885003041184449,-0.20667047233631738,0.6140795087131103,-0.24512380056137972,5.089838780349171,-0.1895300673497807
0.41373902643957217,-1.1506301954728595,-0.07546511964747679,-0.2660607595497481,-5.911846627784412,-0.2890814959609987,-0.7018996100169356,-0.32450628486847916,0.9391249126530385,-0.3119243373047951,6.35964677213251,-0.317207533104828,1.108279899134002,-0.3429441644390762,1.591192442740174,-0.34315457886561995
0.16860076638006283,-0.10815422121169482,-0.1672471384998937,-0.15768966969058631,-5.501307331659171,-0.16307191367769786,-1.111797025427422,-0.1404922163321496,-0.6722425009566653,-0.15120772541963207,1.349026990839352,-0.15519679241739381,0.7598690707356722,-0.15603063723503696,2.3263991611339945,-0.19236890322360312
0.18648231089473352,-0.015922645481621367,-0.8346717002848303,-0.11011144634922088,-5.331811378013192,-0.12214328801622273,-1.3033672877675229,-0.11279318607913352,-2.9607483492606312,-0.11167584613187889,-3.0307328966571663,-0.11221556498815441,0.2866545357387154,-0.11227624824946253,2.4380888261412066,-0.1197491596098335
0.11331503640568974,0.33680409851608545,0.4502396474218769,-0.10311635331641042,5.2651409207524935,-0.10309599142074968,-0.09386143531223744,-0.10215549593700649,0.7218963996203129,-0.10212557023288668,-0.07725175552713553,-0.10210922926902206,0.3112118533611392,-0.10196462896556492,0.09145171173085373,-0.10254665125869339
0.09343171499666611,-0.2048030760661888,0.22325731280292432,-0.1106654891030372,8.182385686412458,-0.11070054125398011,-0.1820464124715077,-0.10906653892642092,0.24550578487278021,-0.10886540979541316,2.884805150490584,-0.10932795022697256,0.48297093625227483,-0.10918908875932133,0.33377351166042124,-0.11008033222850676
0.04123958932285412,0.7613711816005981,-0.03578331823174557,-0.13263047316993767,-3.1141524314561204,-0.13775823440106547,0.5841233313042254,-0.1300177752572624,-1.266138486622097,-0.12784957225469193,-1.9686816099599636,-0.1292655504240307,0.20354364908658615,-0.13054270010282754,1.4125589122492472,-0.135923473390278
0.04942965442256728,-0.9822108138152533,0.2576380854646754,-0.19127182301312062,-4.12783356789691,-0.21741267256977842,0.17085228435767053,-0.24909613609061082,-0.4570395647002263,-0.24118343393560668,6.487327836288433,-0.24885943879583666,0.9119548523745188,-0.27793790796530937,5.307733643451232,-0.24214682109259503
0.8717279052426316,-0.15331121682238638,0.31138421678430733,-0.6953040571910307,-9.266087679468784,-0.5810868944556158,-0.6225351615449978,-0.9038928669347039,3.6812477081259773,-0.7151039813333114,7.391540428300476,-0.744608764186498,2.441548734575088,-0.9630346566504685,-1.8727086039881695,-0.8547618202797506
1.310487069261609,0.5071013437287514,-1.3174862444139355,-0.876882413791477,-3.1549902401289733,-0.6826141461865085,-2.3931171158710645,-1.0670911741035842,6.33217372353417,-0.8393044489328166,2.9092349939024955,-0.8901618066160369,2.666295653166697,-1.1546068551094013,4.079941215794766,-1.1267254509937674
0.43751415090643125,-0.8015556346608529,0.698215863766032,-0.2824516877830045,-10.357722660027052,-0.3359839337579882,-0.4348350718018121,-0.4974153766668451,0.7485311094924496,-0.33718859992486655,2.0433158902158537,-0.3397308354307199,1.471700413764545,-0.4681314938713833,0.5367843470017243,-0.3990749526516219
0.16592526582597567,-0.49028199436140374,-0.13866513343378767,-0.1200032425052771,-3.4953363861564175,-0.12338831483545157,-0.12029425157462541,-0.11516886595778786,-1.447963262362702,-0.11602700872223286,2.8450061517028824,-0.11629783818241683,0.20592611014568338,-0.117645707405571,0.6489458139052687,-0.11962556983886338
0.11677339956823957,0.07201915536272824,0.5352270885283608,-0.10368103141259162,3.9217889413486224,-0.10335598514800118,0.43163714472337494,-0.10235825192533239,1.2722398034512028,-0.10182984813249744,1.3038641688816361,-0.1019694556954654,0.06595595293087211,-0.10238481710626311,0.2555519545463001,-0.10292374792581191
0.11206807364554301,-0.19953969277493883,0.02341313359762424,-0.10337978837319749,7.080499864256169,-0.10334172884942776,-0.3320744864943359,-0.10234403088543702,0.197843238317172,-0.10201707733045401,3.7056280035144793,-0.10209187283047809,0.02904492562337437,-0.1020240271486872,-0.04336631212715443,-0.10292559145241835
0.11575229438206622,0.7595167385022585,-0.6147166585395115,-0.11243543197880829,-1.7754596902387914,-0.12316045243076885,-0.5652501988736075,-0.1162653177943758,-1.3998707151634424,-0.11349138616402134,-1.7812432231685515,-0.11482993337597315,0.2938754453863018,-0.11414740440396975,0.49679927379124367,-0.120733351998809
0.5999563318238048,-1.12287823046857,-0.4014249564290797,-0.23813644705979475,-5.29927609732182,-0.2851017560403718,-1.0811665758094866,-0.3264774236080321,0.5641238993967205,-0.3048420250413435,5.993404114370523,-0.3080423500838243,1.149248940850448,-0.3369538943925642,1.0899027553266996,-0.33217118892966946
1.2777287503021262,1.2152226165125193,-2.06030387352546,-0.8692213995270529,-6.273982595319142,-0.6694402336866658,-2.7615870719615714,-1.0892663990569516,5.724868373301622,-0.8237106573652078,1.7130578764580817,-0.8770934166633874,3.053675957854836,-1.16865620194024,3.264598137021587,-1.1326095753346985
1.017122310158306,-0.06746053002716805,-0.1949232412009763,-0.6453761284078771,-6.884521243074726,-0.5822973293272303,-0.6259773171506166,-0.9336835627252259,3.150417309614103,-0.7115096913058974,7.490488385569936,-0.7374358454224572,2.6850552061354214,-0.953874589114023,5.010381310365895,-0.9329445628818623
0.3405172726541099,-0.49341602954513947,0.48474664598810263,-0.14867717770858063,-10.950231361736993,-0.2034385141821813,0.0005100215556375306,-0.3575554955415522,-1.0719645374535272,-0.23602641355013534,2.1844322182746803,-0.22170267209530006,0.452904299023722,-0.2905256768648476,1.7114861673522268,-0.26610040344051017
0.17310497967909666,-0.267248857867327,-0.27418974370178534,-0.11400219413108739,-3.186971019295686,-0.11729251586207233,0.3940798992592051,-0.11113528961669089,-1.8016816288914208,-0.10975459432900887,-2.129746841035972,-0.11030158226160562,0.46022600815260706,-0.11110946870377794,0.7002926111284585,-0.11241579431797974
0.10856923303349911,0.3944516029778382,0.4884173887546106,-0.10243039723160571,5.771663639308661,-0.10208525212011549,0.17538513731048022,-0.10098513886515001,-0.042496155539472294,-0.10062642798823214,1.5854010982058275,-0.10086739186916917,0.3001271123137292,-0.10044478600979921,1.0139652048274086,-0.10136196516584024
0.11256780637568212,-0.49294358080513573,0.6012818296748674,-0.10270829617855015,7.0411084145554,-0.10292245906254097,-0.06408502945427501,-0.10206959775825693,2.22156131867873,-0.10192286196994962,2.0676377562074166,-0.10190228242426856,0.1770654818935732,-0.10179018484903851,0.2975041451668821,-0.10223682515064154
0.11636977542366349,0.7175237839599823,-1.0262144553966488,-0.11754588835630103,-2.562471336170323,-0.12555541679029297,-1.0241385426899432,-0.12712145929528612,-2.7481257348402117,-0.12047883944844232,-1.827037621669809,-0.11972655267050407,0.24126487622160925,-0.1214824348208386,1.689341218086949,-0.1205814954888328
0.17996314818635784,-0.07610964824749396,-0.248246708277986,-0.16041944405523445,-5.720643829025119,-0.17036543335113954,-0.40545281814646295,-0.1572448473760985,-1.0876862524034754,-0.16039716172236218,-0.4534453553570888,-0.16623722062442137,0.7478666775734062,-0.1649090762916973,3.0027279245597756,-0.2031549400705936
0.28436054374487013,-0.9615876978933235,0.18305110417029744,-0.3128369431337398,-5.757461468217421,-0.3499789128251979,-0.0512776825785296,-0.48575146108537015,1.5031530090554377,-0.35795685942318567,4.460573203934956,-0.36310204067024665,0.9489837902928248,-0.45958434939969234,0.14554311395869274,-0.4021216368704245
0.2559340157311401,-0.9918596507775717,-0.015238204102571607,-0.1707872155746549,-9.062592331927686,-0.21802689646256102,0.040934211702970506,-0.3452135211886388,-0.03554824018109377,-0.260435980265637,7.496715411813847,-0.25273726299508126,0.8480142097372471,-0.2895713797981111,2.1384078994045645,-0.2726571591899823
0.1279747187931658,-0.3446513912447887,-0.19313657227194814,-0.14587954747685336,-7.660927801436646,-0.13850527147890795,-1.2134537822169469,-0.13162322886077457,-0.9887548601994932,-0.13648835283467295,5.080339204560573,-0.14426030793161265,0.27853717390123856,-0.14769874102429734,2.9714548926535533,-0.17668485209862209
0.16550357870997554,0.48898345707054225,-1.2298091389747616,-0.12194465986939235,-5.517986603392974,-0.11201523582671014,-0.6461168253929964,-0.10416472876423921,-3.29892350532395,-0.10741996872613711,-8.787184031609371,-0.10961704367010477,0.4178768833751259,-0.1073112120019698,1.9355920564149192,-0.11194787993435978
0.11256543611411919,0.4135295464429247,0.9397599330163028,-0.10165173419879983,6.662980333554314,-0.1016638934475021,0.3135673942303217,-0.09854649948866975,1.8854358385786087,-0.09831967857318445,-1.5878190349975352,-0.09866053460993746,0.2987067868921677,-0.09887696276692633,1.2404800382184287,-0.09948485412674578
0.10741294906494657,-0.15877180469650323,0.2721108284080228,-0.10104935214430051,11.449323433022279,-0.10181712712007021,0.2589315691586583,-0.10051215316669729,2.3429052614093377,-0.10035810178654121,4.483023324919843,-0.10042877710071581,0.6376543488239101,-0.10022167479428361,0.38012936911657874,-0.10112439516081673
0.09879034755628069,1.3259555507310605,-0.1277965290412855,-0.10031272546601241,0.9190887627872201,-0.10706641431338931,-0.25972356331485197,-0.10285056803221322,-4.334693036465664,-0.10011084623076588,-10.856375785183827,-0.100647005798885,0.6479029811977915,-0.10129699501169692,2.6968140017339746,-0.10139851152579672
0.1702095597786422,0.0022390540293105478,0.19417331480834543,-0.11335437958298385,-4.959233660212391,-0.12185272939426166,-0.1485877132010273,-0.11664588026319717,-1.8660518587648975,-0.11481326537722983,-3.1759625380607246,-0.11508037834153977,0.5691442291235784,-0.11723057592667081,2.7763309495466206,-0.12110468705783796
0.14140581781975428,0.16517348241917193,0.7632803300859622,-0.11489943765275226,-7.429064838431325,-0.12190458655088018,0.34335760552697486,-0.10797013579192205,-1.0530645235267722,-0.10756902042765237,-1.2769882203051806,-0.10882283680321586,0.3552174517940882,-0.11161848438450801,0.9810981974311284,-0.1148889376947418
0.1609095620285885,0.11248727042962696,-0.20087079793536367,-0.11833751495984794,-4.470633549023174,-0.11891307837969828,-0.02225364589342242,-0.11170428980762366,-1.9053521817398997,-0.11147565228717995,-0.5777336391355757,-0.11241717385775417,0.1711761749163993,-0.11282482267788906,0.5472978292982118,-0.11569357120898473
0.10385694761774042,1.1347475689519662,-1.1396451804247651,-0.12324668500410377,-3.478337475426701,-0.11335662285926307,-0.7101885232484108,-0.10663798536783047,-3.1675635610061708,-0.1097305899197685,-7.957055100919798,-0.11160999755618042,0.2778783148493722,-0.11064515643503382,2.075705670392057,-0.11442003835170919
0.1696357556629276,1.110229498717813,-0.13995485257113685,-0.11101791371152017,-1.8159740774994548,-0.10796276671771794,0.21913318298059256,-0.10609172810087597,-6.4631183482146595,-0.10629864800315163,-14.050271675239813,-0.1076966478432629,0.7033769142540537,-0.10880823310958192,-0.0929259509341027,-0.1103202257540765
0.1027522575368827,-0.6247698904384005,0.9432135420076334,-0.10112337616666939,10.016919809758706,-0.1006363603725086,-0.15217368812926851,-0.09933797595108387,3.798988162274143,-0.09961559066516434,7.310924643193894,-0.09991610472403245,0.3806737724804819,-0.09946132050406403,0.3018410737640192,-0.09992537744693855
0.10414567846313721,-1.463969455356227,0.9359024883083393,-0.09963559351753969,13.851507921426574,-0.10054488767906872,0.6535620689712084,-0.09948792524331718,4.776742462316872,-0.09924194198058513,9.862087288341412,-0.09928401269798347,0.39480595010966435,-0.09944446930597632,0.7403104965319853,-0.09961028265456724
0.11126338682195146,0.229613787276455,0.798374952036299,-0.10203083251886198,7.047309082033702,-0.1016977448716711,0.20076043942793267,-0.10082551483450082,0.3857935486383735,-0.10092352768093468,5.068089117933083,-0.10110926070967936,0.6100783200241131,-0.10111303298327888,0.20728840259534234,-0.1011111623270903
0.11018335968215075,-0.23460876043296894,0.6501208496045464,-0.10139333072885455,4.478224202709141,-0.10268126734693292,-0.18407774595390483,-0.10075282118109423,0.48896128559594726,-0.10017444700419524,3.692356024363442,-0.09999225165082182,0.39774078812517627,-0.10029748568165085,0.3830562341318453,-0.10148794823874305
0.11041894606194391,0.24426940581082987,0.6379330159486741,-0.10317172195875919,4.448148045220783,-0.1033567234763785,0.13520272727267385,-0.10116801789518862,0.058576860223962766,-0.10016176461879536,4.654181392762126,-0.10051651434295804,0.36038525549810696,-0.10100163719575127,0.28941766107949274,-0.10165039186901559
0.11602533762120304,-0.07042001549027645,0.3956079323453631,-0.10337039928181858,5.049811691769229,-0.10276371727318634,0.013302457118740358,-0.10181606492832435,-0.09887182446549878,-0.10201139676833015,3.597867641860604,-0.10216168001699952,0.2236320904308033,-0.10171193737131844,0.2522953976197445,-0.1021723123163033
0.10934516216722144,0.7048817864517107,0.6351924861249433,-0.10206664323140438,4.779091564931049,-0.10227869642731108,0.28368208793571476,-0.1007762672007818,1.1257294235390205,-0.10056083997129218,2.3580772481564853,-0.10078184881631795,0.46078212143154557,-0.100731178741734,0.7881090204586078,-0.10032175244315297
0.1015113459347616,-1.3477675649481062,0.861812396614642,-0.1010549273958632,11.916711338288518,-0.10086588231589705,0.07490034073118337,-0.10020134250466815,3.8402764970695356,-0.1001052443274373,3.61453919915145,-0.10031259650545783,0.45133464266693024,-0.10028760764624095,0.2364637392348055,-0.10064703697635491
0.10317984943131678,-0.9821691538634714,1.342727267213065,-0.10072975679498257,15.842789816086192,-0.10072292862293127,0.38824900264166873,-0.09986944002579955,4.510487617868958,-0.09997636137338325,11.846717044807107,-0.10013422215145572,0.7458916372132866,-0.09982876109471416,0.3012377463870587,-0.10001240810430187
0.7758834907998602,0.5054233998037483,0.38560161018142897,0.2958155435658597,0.2306728166659027,0.3300367537109518,0.4527026669467901,0.6019922051502652,0.4613741517724697,0.36154345437121577,0.09392107190752755,0.10322770635799487,0.04525351420303381,0.09762847806616134,0.18876591220585376,0.45117251524510543,0.334451931807669,0.20558824740298248,0.03463117346933221,0.0785746283202714,0.13321494287266009,0.1023956117725585,0.040824681630794085,0.35596349923953663,0.20742224339091234,0.11867477873753475,-0.032460404343337176,0.03605660000809872,-0.03605660000809798,0.18574156132653705,0.03560370046751473,0.2833124640121798,0.19767883605241904,0.10338675187065496,0.11576955244636908,0.03605660000809872,-0.03605660000809798,0.0918842910088004,0.06076979140115755,0.35621903423397644,0.15745234222154622,0.0831257802383095,0.02791365279367291,0.17180773990333464,-0.021206353157439888,0.08000067115557544,0.08651448909057682,0.4394960682070126,0.3847376274087542,0.2194638123572203,0.01640310383651099,0.10132014588610849,0.068914872852437,0.17677364591556233,0.16734660298303045,0.539240915628649,0.42179469672274483,0.38031839931524103,0.24512429072826647,0.29118447121919117,0.17990112621957208,0.39980236735331687,0.33941460138153856,0.6402365870256254
0.23030939889952096,0.1726663956133729,0.08615469642274315,-0.0051525138184983525,0.0717457148114437,-0.039044769214998304,0.15484842937515983,0.1639439262299015,0.2719763548583144,-0.022191699729570618,-0.015721475939669962,-0.04567578321690611,0.006264508367301549,-0.05761300435034414,0.025911054851410716,0.06779604021234384,0.10298064056871963,-0.08330168905422508,-0.050098654859561643,-0.09390574092865889,0.12746442461163715,-0.07913188316330395,0.0023994389783768915,0.026967014792697537,0.12116987972654367,-0.07137807268588153,0.014667721143044307,-0.03481860350357955,0.03481860350357879,0.13835579711173868,0.032134458658787696,0.024349421523646178,0.08244630547513353,-0.041762066978796586,0.14912713525977953,-0.03481860350357955,0.03481860350357879,-0.05889189362837238,-0.012463203050570193,-0.06498185736446228,0.14957933026368445,-0.03016521587404454,-0.010663591848576386,0.14279772319195524,0.013777264439711402,-0.030272251298512565,0.030160685957764253,0.05796030151170425,0.13574821754751382,-0.0016267773659370385,-0.005781978258152207,-0.08102229240149769,-0.02532515338108762,-0.06021329232253872,0.06033665768989642,0.2099879944216038,0.28249163012517203,0.04280929312155503,0.0684904199916782,0.022813774242612214,0.02995372702972712,0.006697657004113596,0.24024755518348645,0.13928774328413612
0.04282977932499655,0.014926565502646764,0.006752633252325754,-0.020559152534714065,-0.007923536511034293,-0.025117064795211894,-0.0017623498035677534,-0.002919721288478655,0.04413772435555123,-0.003805810511305331,-0.004530409523931267,-0.029758083675226185,0.007035669687616494,-0.02716739604948564,-0.009319344071134893,-0.029810110995329278,0.03869522610704719,-0.018598205235876072,-0.010017225045575872,-0.011376788241193866,0.020186545616657506,-0.017761398038950115,0.016969275716956528,-0.018539501384243977,0.004876362375634729,-0.03524927550344023,0.011882442029997435,-4.71387417979111e-06,4.713874179761089e-06,0.04896314275631664,-0.01178727087822734,-0.005182884734549279,-0.007900130552995552,-0.010520980804840934,0.033381465418037604,-4.71387417979111e-06,4.713874179761089e-06,0.0026685559583047355,0.0012562608946033852,-0.03816803978755387,0.015187562442616312,-0.006515773936560414,-0.01480596754013142,0.03245679539170796,-0.0004952133297959997,0.009466371889960353,-0.015241768255631626,-0.008708962603727399,0.018349503503421075,-0.032425910390615244,-0.01810972434234043,-0.020609711090366457,-0.025525575107065646,-0.04105864382360803,-0.02486868741014541,-0.013680244900104097,0.02764918472710613,-0.042859166703733624,-0.0496197266511108,-0.035341598848225755,-0.025800109595049095,-0.016790366796734128,-0.025426680411594585,-0.0009104365605906422
0.03588520335903704,0.018887136113801887,-0.03604074818292357,-0.022148515620648932,-0.014878129898299286,0.006366442301553587,-0.0017769179485698265,0.010224487434992562,0.010591058971703692,-0.04281310868228935,-0.02157535782420451,-0.04135478009171174,-0.03301145882822029,-0.0378255618290623,-0.04005340399090723,-0.005782936506326631,-0.00700368642175273,-0.022182379613684838,-0.021484461292846337,-0.012345310020651508,-0.008123013708392478,-0.019261343771343756,-0.029556076048976757,-0.017031848308046178,-0.033124426330898835,-0.02947324145072895,-0.017924024815987066,-1.4356435883983803e-05,1.4356435883979077e-05,-0.01555665578771353,-0.047217090289598515,-0.01955767655446066,-0.01658364982790664,-0.03589199252570264,-0.011572703229545444,-1.4356435883983803e-05,1.4356435883979077e-05,-0.04113655337165515,-0.01983232561307644,-0.014945403464826224,-0.0023642763575970863,-0.0321516164564729,-0.02176353908969229,-0.0024020178410973977,-0.018651079481936172,-0.03780628902942918,-0.018924802020776964,-0.016281377564959003,-0.037791958390623805,-0.02613834780602403,-0.03637451647220889,-0.03544926070065012,-0.03155641868284541,-0.04348043104101516,-0.02410305867705845,-0.016729023138312985,0.007412708830306005,-0.03598083713344542,-0.030719867844178843,-0.031536560403562064,-0.0354987432835264,-0.05368791724729331,-0.016022256813777197,0.011340907483133038
-28.24955989281856,-20.55831091170392,-12.385054835229562,-7.965688089279409,-7.289894653759574,-9.469720788302277,-19.33770294616735,-22.456011879240215,-21.104882561784738,-8.491946407982544,-1.758963511210931,-1.6361989403096633,-1.239280832627022,-1.4751764215524479,-5.479797542222305,-15.22524475333421,-11.864315399622404,-2.9091228838945713,-0.3147956685488025,0.26198058150232545,0.22628325162361487,0.009279898431440007,-1.4254726609857076,-9.694936226630231,-8.789225915196836,-1.0170928256206253,0.08826928957708594,-0.03221388050480758,0.03221388050480681,0.4289874709266147,-1.1655882039706682,-7.2115530252526066,-8.678506972028146,-1.0009365026568586,0.17356054237709745,-0.03221388050480758,0.03221388050480681,-0.08583767126871059,-0.9980015942557466,-8.665484264097183,-9.14232279844845,-1.279951760228014,0.18794731081443342,0.3828848310393878,-0.09810657420751692,-0.15156945827139437,-2.482795731039707,-11.102398166657576,-14.886573927610312,-5.989043632769071,-0.3724136056278125,-0.7486287856587218,-0.9098314268516856,-2.7418582430512686,-5.275583047459887,-20.87239223568751,-21.38959462600716,-14.053906506468595,-10.828664017678383,-7.507534059367063,-7.821551017965128,-10.759947182199703,-18.758960815830267,-27.585838074294777
-0.02495911605655593,-0.04228962827654053,-0.02144192667664556,0.004667319313942321,-0.01271445043485468,-0.027274538997352115,-0.030747921134403444,6.420397906446373e-05,-0.036152713308471786,-0.020020421590935717,-0.015542226756325085,-0.013029442317851813,-0.004001117238714703,-0.0010619003902143595,-0.024855570870923625,-0.01582160856954313,-0.015962527989932116,-0.001368035426414162,-0.004989159477153354,-0.005782060509245901,-0.0008765475750055406,-0.0060304507929122755,-0.011333533122820722,-0.024416145763753446,-0.015039152747398298,-0.008701605202051139,0.002699165017031857,-3.2155163257805343e-06,3.2155163257958597e-06,-0.0035810582089122844,-0.02153487210891559,-0.020865738606762774,-0.027983035606514172,-0.0047601027721505245,-0.0016649503473691095,-3.2155163257805343e-06,3.2155163257958597e-06,-0.005005084569230223,-0.007758349507491921,-0.02666304271648487,-0.028837908072503773,-0.009350592806039814,0.0008384760395816193,-0.0016747672713419042,-0.0016390795593747853,-0.007052336927089705,-0.010510981164939075,-0.0023053549338001287,-0.020931469956319906,-0.03132581913372232,-0.007939529532730265,-0.010082161765703281,-0.005696247796158121,-0.011136368641750561,-0.008312545941029916,0.014951753108776666,-0.010631898397598788,-0.008109216751951798,-0.011119113470189406,-0.00450388226462077,-0.0029594928458625074,-0.011302390210361677,-0.03166531048173322,-0.020053654209535858
-24.186360560249202,-17.64580237948042,-10.750111052275503,-7.249052228821565,-6.456291588196269,-7.615124036670736,-15.795078818473534,-19.041535083722483,-18.49088843052526,-7.149521978079042,-1.536694914597221,-1.5110816506312283,-1.1973625536394952,-1.046933721317853,-4.456509130261479,-13.27240509277924,-10.65205248329399,-2.500715390805693,-0.11463100708435295,0.2231136335747929,0.4795591308993115,-0.030067283783956334,-0.894795966484573,-7.923073133802588,-8.04222907367889,-0.8907277911122701,0.11710303203845268,-0.032249458204043215,0.032249458204043256,0.5136795353538727,-1.076229929664001,-5.981493595848972,-7.419868854630576,-0.8240134301688791,0.39094918113631605,-0.032249458204043215,0.032249458204043256,-0.17325738879059058,-0.7789831456511026,-7.715331673839219,-7.745071619683528,-0.9486476014806563,0.15292300207517565,0.5087737213130837,-0.19661248113691368,-0.11040611166305503,-2.164472188424741,-9.710304247921401,-13.301097642277313,-5.123865615697953,-0.5149319483717655,-0.691125048365534,-0.7829967371372676,-2.2893161998755382,-4.208072505875595,-17.932195104076,-18.547365911500492,-12.410428665059994,-9.875586580895545,-6.451504188101103,-7.366506148371437,-9.244915472888882,-15.951939661334706,-23.723939989150296
-0.22719890633478432,-0.2160373444672627,-0.14769883353975058,-0.18186128183267647,-0.0766233520763569,-0.10759708022119902,-0.1402723930294441,-0.3302815554667144,-0.18106888453683054,-0.09018158790858259,-0.015816645948559707,-0.01743908550869785,-0.008145636473828769,-0.0077896684126200644,-0.11281405315857591,-0.13059065470960401,-0.15946428666796883,-0.0686445257145649,-0.006453711325123154,0.00939094421067622,0.11592975918228746,-0.0062381752435476156,0.016266139099448438,-0.13549881457346205,-0.0669599938390632,-0.035317956299378485,0.024711980717481177,-0.002917503466521781,0.0029175034665217844,0.015770561869775473,0.03986146711072211,-0.11338606671930604,-0.04316357493780483,-0.03349267324526462,0.11954657282938419,-0.002917503466521781,0.0029175034665217844,0.006733570691644242,0.01313091831400771,-0.09525848271246992,-0.16954216017623389,-0.015097946478084306,-0.005475457146222233,0.016510488512144886,-0.010867323060944711,-0.1102516649431909,-0.042261957371254225,-0.23258373433278992,-0.20082670537134514,-0.09649679078729892,0.00033277949196441626,-0.01585088649630276,0.031745058921030536,-0.004677516916805941,-0.014225479909917698,-0.29334192649173346,-0.3413497973130862,-0.12976394776032774,-0.12484423134247574,-0.062201013578268884,-0.09327906353256371,-0.14522677706687298,-0.25083292025588216,-0.2827505833554759
-2.18362912190572,-1.890433264435385,-1.1982189506381036,-1.7687160507303243,-0.8459511629696961,-0.8124645304620979,-1.743770049578726,-3.141071885776489,-2.0031688114684503,-0.9069608155628637,-0.23595078432647967,-0.20503929324005638,-0.16086531980971305,-0.24994559165212368,-0.9095322196987602,-1.1925493586375402,-1.5291130592891256,-0.46867195741481815,0.06577477567695787,-0.010639523132121556,0.23169770494437597,0.009145585263444198,-0.00945836274321208,-0.9799100596261588,-0.7211188689053977,-0.19523910064238645,0.06694723911062653,-0.03293823923634339,0.0329382392363433,0.08604412885477451,-0.011027038319355309,-1.0326067686646108,-0.4108623314925605,-0.2452966645455018,0.23305914774507508,-0.03293823923634339,0.0329382392363433,-0.023103334904715972,-0.1644419110052552,-0.81346637637264,-1.5878321449371957,-0.1328418063192881,0.02759830644008397,0.08447408083098104,0.004584490854793577,-0.11442205184073363,-0.30658550036142435,-2.135428074505184,-1.7274460300845023,-0.9339054703471512,-0.04735783042817775,-0.3692514042540905,-0.13588735494466278,-0.21249381832366082,-0.23951241516769944,-2.6809577667550957,-2.7309495097987275,-1.0397461267108443,-1.0248083138425867,-0.7639673641206955,-0.7965184885628928,-1.503593827426789,-2.4139952126876745,-3.0415535403881755
0.023181439305524187,-0.01315269332238951,-0.024928358394416626,-0.018227903109908718,-0.01263365312253884,-0.006015045744554754,0.027381206757314598,-0.01999769945010027,-0.030759488514830364,-0.006370051581565318,0.008012634044333047,0.0182176911790655,-0.0018021315898355684,0.015138650975449407,0.009090646920108992,-0.008439573763942543,-0.021465975738546705,-0.0017394965683357935,0.023701961375667716,0.023117033441478165,0.017760971329670118,0.01539633150045386,0.024677785643213324,-0.008946773807806563,-0.011688001933455481,-0.0016299184059993313,0.012764606022567187,2.029574534390424e-05,-2.0295745343935878e-05,-0.000873070257849467,0.0013255471631972845,-0.0427586863479582,-0.014781774272126598,-0.011346614374575922,0.01285339942292763,2.029574534390424e-05,-2.0295745343935878e-05,0.014380062908212376,0.022007343051280166,-0.0044567211443770115,-0.03215837333692315,-0.0027210527092181845,0.010279000027332482,0.015023323004373444,0.008851532381349048,0.00881402210310266,-0.0027754566971985974,-0.017187753390161202,-0.025079096804964653,-0.01808818254226661,0.002014878408734508,-0.0018827469139626881,0.0059691304222590155,0.005736496927714583,0.006080837953539615,-0.0002180564553575506,-0.0020386541365536963,0.009640523629055311,-0.014345409258007383,0.0003859082433380928,-0.012730515195430336,-0.03377365056705218,-0.0017849898424376568,-0.04819309724495587
-26.597394134317636,-19.2014828936881,-12.540812221802765,-7.582353315924887,-6.707211250055068,-8.745924319233165,-18.38731555492785,-20.789783856629878,-19.393095458738085,-8.539196760341424,-1.8363685064265767,-2.001606097528072,-1.300462861815389,-1.6188845720375584,-5.364549597836765,-14.650805925165143,-11.402034099708343,-2.9928515857561377,-0.618383035725636,0.030234766487273534,0.009383635835572158,-0.27251131645880056,-1.6549219658312686,-9.102528927937922,-8.674588430724555,-1.2962118363088455,-0.18306950638192357,-0.03197519215229763,0.031975192152298,0.2063900535209373,-1.4502853300120055,-6.65840325650894,-8.257722290100102,-1.248130429919149,-0.09183661530362473,-0.03197519215229763,0.031975192152298,-0.31448610808574323,-1.2926210386556896,-8.459945192829473,-8.45026696657205,-1.4698546734966138,-0.16086222053443366,0.21889553211981588,-0.4395054928259199,-0.5545927477674341,-2.595031132654156,-10.158653268922103,-14.00981967604678,-5.782058589869137,-0.6541356285673323,-0.8428924652271124,-1.3270656182949678,-2.6387202649449586,-5.212647750683071,-19.69995399824154,-18.490803676788005,-13.188343682471576,-10.079406336760135,-7.059288512938335,-7.224306083862113,-10.218354368571756,-16.688983625942008,-24.749150666591984
-0.003482839974678607,-0.007413656780494704,-0.00661762265390675,0.005423916474968494,0.009768875697003361,0.0019353889405495273,-0.01907687741188135,-0.01836550573165365,-3.263041870707294e-05,-0.010889931914492692,0.004386560963498662,-0.00523607622880506,-0.008217691123143633,-0.0004903219198632721,0.00038048239642554454,-0.009682441106261866,0.0006978698917407712,0.0001306113083928422,-0.0041505915045960875,-0.011073508587349394,-0.0019826510897354268,0.003562283632436705,-0.030243769808567935,0.014719894073027697,-0.011216802176056818,-0.011767429142429354,-0.0017967786210721008,-4.85500655498448e-06,4.85500655498971e-06,-0.011116991508223312,0.007047953958215276,0.014532624065368463,0.004991987487582376,-0.02218499017812659,-0.012455488785197763,-4.85500655498448e-06,4.85500655498971e-06,0.007867533953312005,-0.010472748361814502,-0.01183998088950928,0.017240205149748115,-0.02043221892241174,-0.003759333743026991,0.006477866583539746,-0.01054596787906599,-0.0051598147299539675,0.0023272695984081146,0.027453675903194377,0.01159870507462098,0.0022529794164312298,-0.00037762308030663135,-0.01494932303111717,-0.02471642535437047,-0.004495591051811817,0.03313071325204309,-0.015328547205376585,0.004203711042009611,-0.02155076571212357,0.014894138983598846,-0.022332956665675915,0.014250091707039055,-0.007516639349457536,0.009158568993904761,-0.07802093810251744
-24.244485981985143,-18.692629524953766,-11.363573270674285,-7.348732098880716,-6.657371442431523,-8.3947565844218,-17.472908878722308,-18.912391794816678,-18.86662361440172,-8.353105765526365,-1.852141176856447,-1.8445037331596243,-1.3701470593097456,-1.485925196201657,-5.110751661344918,-13.309270727466538,-10.236360200638075,-2.9236353302743456,-0.48796352730381115,0.15640258053399803,0.30219565749210964,-0.17742191180685968,-1.5141642426165471,-8.988953047900532,-7.937713037786366,-1.133574070393244,-0.039315457999004204,-0.0320194349750802,0.03201943497507967,0.38497789795709214,-0.8619682712964178,-7.007027762498961,-7.358212653337726,-1.3084404439812463,0.24591532175615974,-0.0320194349750802,0.03201943497507967,-0.24932378109034248,-1.1666071854233808,-7.771091783443135,-7.7618933113862365,-1.251170011544983,-0.07564409765332704,0.35799775735912875,-0.2884524004704886,-0.3777998622644926,-2.804052004069527,-9.711358603207845,-12.761632737454054,-5.808951468530154,-0.43459155451211096,-0.9161916982902856,-0.9175605662059645,-2.7131964336147973,-4.786370244913221,-18.810749371902766,-18.519945279070225,-12.046385922899175,-9.371395525565884,-7.363647297795454,-7.10725186431564,-9.35197228758724,-15.67511834865561,-23.388865562421078
-0.4422188853355395,-0.3099689443631462,-0.14340772190560344,-0.08976549987207888,-0.07165468179152129,-0.1067765612259618,-0.26818365089463536,-0.3303308712438256,-0.3174688094234306,-0.09517738908604834,-0.0011312290562653655,-0.0003215009131558076,0.015753616451172115,0.008169511875976768,-0.042597158010488696,-0.1988725135217002,-0.15283025775167605,-0.05581663155840884,-0.09306967363227174,-0.011404508519606844,-0.08785861225120159,-0.042245508126035274,0.010251181968618493,-0.1010918311219782,-0.08383458191022691,-0.006607783595524129,0.00205457186447836,-0.0005496084509601126,0.0005496084509601274,-0.02265031027959649,0.02298773375522918,-0.07220133704832289,-0.07195560135003877,0.01619682480878834,-0.06498046252147788,-0.0005496084509601126,0.0005496084509601274,0.017037203015502194,0.022010486156201464,-0.07657483174136795,-0.09476938857810284,0.008198086048601803,-0.016656733023924886,-0.031362663558919764,0.009877975327318513,-0.03978257512886114,-0.017675312905095185,-0.126511215779247,-0.18419972848631042,-0.040721243770411295,0.03257446636755231,0.029869025424287012,0.012368258047958968,-0.010451138182936841,-0.04016792815759805,-0.27755441791097113,-0.3068626190689867,-0.15380017309679855,-0.10170013976681364,-0.08424215588737577,-0.06055337533517233,-0.11219710532740537,-0.23116896650811156,-0.4621539951432618
-28.237396250990002,-20.53624200228222,-12.817822676334629,-8.221889873536819,-7.695249504952405,-9.830907769621819,-19.300769712636573,-21.6567673264334,-21.226284129633456,-9.026236876686694,-2.0719053415161826,-1.9839197226933198,-1.45448264815228,-1.6834266011698968,-5.693323783449389,-15.053198183159441,-11.942174859006801,-3.2139488201112787,-0.47638807938097355,0.1655646310934095,0.22256671863874414,-0.12700667601522367,-1.634818729847211,-9.875771835240448,-9.2702775400668,-1.1964400635671337,-0.020399239449350636,-0.031322716600049,0.031322716600048754,0.3889715731765584,-1.3490437960330803,-7.4345353096648825,-8.845055753799643,-1.1712741189289821,0.1731193454614857,-0.031322716600049,0.031322716600048754,-0.2316904324152714,-1.127342903469798,-8.887792623031816,-9.233876671036873,-1.5446638364546952,-0.014506584799958719,0.3883353031903908,-0.25527641004592955,-0.42547595471842253,-2.7727278727642966,-10.966919554602006,-14.842202260548083,-6.27359869035638,-0.5052829740404546,-0.9226335147848808,-1.2166027668309718,-2.9244093156591533,-5.570721393395221,-20.4008614295434,-20.609751973506576,-14.236805508135191,-11.550073265066219,-7.982853224363456,-8.167979501430986,-10.86658172014012,-18.539990123756308,-26.514039367859525
-0.5012152345569055,-0.33330968506091124,-0.19975617937043372,-0.17123134538276588,-0.16290142184609943,-0.1638196808913544,-0.3209737527949764,-0.40597566090688214,-0.3514860628085668,-0.14146883629811738,-0.057304694347743476,-0.01545545613749021,-0.022858105081374237,-0.026999285211048805,-0.11128125334261849,-0.2814564635475924,-0.2348876324460797,-0.043301540040681666,0.11468175721868933,0.03082780808614531,-0.180959381987871,0.0231046811724323,-0.011009194766138312,-0.19814920142051642,-0.1807146166479916,0.007125728264555082,0.018554694752285522,-0.0006871455544097153,0.0006871455544096978,-0.2714059064136204,0.0009675848660952834,-0.17025724199606654,-0.15320660310301185,-0.0067016635127345615,-0.18983773372750873,-0.0006871455544097153,0.0006871455544096978,-0.006157654553443023,0.0013428057368562616,-0.14529494106565422,-0.17441558174515365,0.002493622319515865,0.013510665472249248,-0.3020558926482997,0.01920842039233735,0.0434685142935358,-0.06666550106984039,-0.26750034630144864,-0.25354718091236417,-0.11350635437943343,-0.005425030587584797,0.006202781850128408,-0.0037285231509647785,-0.05166743920859581,-0.12824337032396493,-0.3706159049740195,-0.3963876688198148,-0.21539000634283234,-0.17352284376006555,-0.17353930258078737,-0.11267910546518185,-0.1864666577507343,-0.3162419008130083,-0.5330481922010807
-28.1028011583246,-20.453437107128412,-12.76557182600703,-8.199404109945139,-7.673043783918905,-9.799590264759157,-19.224109892133143,-21.5712282902398,-21.136482497455695,-8.991576453471918,-2.0591535737911184,-1.9666659833175835,-1.4462309486184122,-1.6797330992851434,-5.6726506969862935,-14.993769597593241,-11.89243722020338,-3.200909356938066,-0.4558375478830508,0.1733158989870406,0.22905342409638824,-0.11744476511174727,-1.6245301418113796,-9.848736167925619,-9.240787489574593,-1.1877376385122012,-0.007690419366436267,-0.031235039726626227,0.031235039726626355,0.38321450208867885,-1.3395406173592515,-7.412047206381133,-8.812674137778211,-1.1650855082830776,0.18277074582764422,-0.031235039726626227,0.031235039726626355,-0.22362932748098588,-1.1170739701460768,-8.858867303083953,-9.20655821906826,-1.5398740400105573,-0.0010114289378689357,0.3881794077961342,-0.24291381009347404,-0.41572325630307194,-2.756359671755309,-10.932557119224777,-14.787086511374683,-6.2528833896726335,-0.49977646671352843,-0.9164343254138272,-1.2078053473949009,-2.9131290643775514,-5.546487293377076,-20.32001567816751,-20.522844905621188,-14.180206449037167,-11.513791478496822,-7.954682969337636,-8.136497267393048,-10.825548420966415,-18.45919765147569,-26.391228985578145
1.2128089810665914,-0.21220456038042151,-5.7486350132099,-0.6961563404555435,-16.19413746713233,-0.5851058986009511,-6.61640211711385,-0.9068965879311286,2.0329044503151703,-0.6902042447620137,-32.154448130996855,-0.7150229713976118,-20.524187403050764,-0.9326033300484723,-19.239215693154225,-0.8685186940881725
0.10644424611546353,-0.8657350331737407,1.0426503964271299,-0.10093967464685873,11.507498501224074,-0.10109911686827695,0.36052443008969925,-0.10024259712297431,3.087737979075259,-0.1001567069380725,16.643690159208706,-0.10021911822377706,0.15962492135855627,-0.1000002849764855,0.5017290298795052,-0.10058751696986318
0.10316949610799102,-0.8892155547086614,0.8598303651711543,-0.10122351102694456,10.357195655756179,-0.10116146360791413,0.2521896433779267,-0.10017403383864097,3.0833000702259143,-0.10010090133801779,8.591686403457244,-0.10038009242995105,0.3094823930631722,-0.10049660345441146,0.39758209240840486,-0.10118244082455691
0.11747277656003105,-0.13316195792275828,0.7518872528514373,-0.10276695007943099,3.7564814652807086,-0.1025193047935213,0.48285113174273286,-0.10201658370125867,1.1307291491896574,-0.10181195421232186,3.033030993545995,-0.10195838783421832,0.4471849040207881,-0.1017970067241981,0.5306441966460568,-0.10266738618605745
0.10192404518347838,0.15568020563519555,0.7946276326518191,-0.1010552582259299,4.179314321952589,-0.10163304458237757,0.1486638381216392,-0.10002806467140732,2.355969316152008,-0.0996092444077164,-2.495908150067545,-0.09991043733616853,0.4443127734042694,-0.09998407717426087,0.7463443504782417,-0.10091501114427831
0.12180654916767386,-0.04245336380292674,0.155768451249649,-0.1027428990968486,4.532874611076619,-0.10341939439752616,0.17361567185429877,-0.10257938862873253,1.0475109920469274,-0.102029939169703,0.6057561697061254,-0.1021182521786043,0.37122606444154016,-0.10203462108430163,0.5806293287784668,-0.10303920818532629
0.11013792005783848,0.6044899134952704,0.33246312980032655,-0.10251992780083495,4.6276433933778325,-0.10260043783383276,0.04871693713546096,-0.10147328113879456,0.1542161560055178,-0.10102675673935205,0.08059535988618349,-0.10111649643267866,0.757710742317909,-0.10143951523039718,0.3126575265317805,-0.10159290694751409
0.11239521450083968,-0.7126955478277175,1.4916886458978897,-0.10061099021645117,10.315920067760933,-0.10177891644287451,0.6358454706442204,-0.10067513071635556,0.6825621371533864,-0.10017567046656106,7.575545474102862,-0.10035447962490358,0.47753970818344504,-0.10027188386245603,0.792797959231302,-0.10124829019116688
0.1041824116721231,-0.5791457566095203,0.9773980651529727,-0.10022584102499776,13.542340088272459,-0.10064076954388666,0.03327361765907904,-0.09960397424661663,5.989269514170398,-0.09994811584121513,8.81185651836701,-0.09996151410458443,0.44807717140103126,-0.09965163330267822,0.22114692598273086,-0.10020477108072913
0.06728626895627282,-1.3930130113256278,0.858399233573175,-0.11832663820586578,12.808638766218426,-0.11830509298130085,0.35676383373778575,-0.11734159465986142,3.064525216645919,-0.1171074196634412,7.960299901957906,-0.11753085563890418,0.4624580742036917,-0.11743428174580811,0.5083175005306971,-0.1181048917872996
0.14628357786551613,1.4470840628129136,-0.3270517699903471,-0.10947723382701842,-2.985392549139909,-0.10640481320717701,0.057205322087956506,-0.10525682323390055,-3.108025191626028,-0.10405625884654657,-14.597456882452235,-0.10511192164218244,0.42364248416464023,-0.10622252885749614,0.4875711041916139,-0.10845209216171395
0.18216261969643638,0.5549354801918264,-0.284234758677455,-0.11484770814052751,-1.0070894092125076,-0.11559727958034557,-0.29796610889383546,-0.11378735598277419,-2.7555450214619106,-0.11037376863021583,-10.246864835398103,-0.11225335971516255,0.2668256872367175,-0.11592090257354155,4.537796125353659,-0.12468661963674198
0.1179305623689744,0.18037709670604457,-0.48252480268317216,-0.11671722705007889,-2.548368954821037,-0.12050174971511261,0.33490640988047354,-0.11593961845364137,-1.8796151577251292,-0.11307258620874068,-1.7615656712145855,-0.11339501788304687,0.22695286537664308,-0.11625441241212311,1.7548068101416456,-0.12075235621738366
0.1754377763741115,-0.19954514682497115,-0.028253465201800925,-0.10963314403347905,-4.218069352326723,-0.12113950278421583,0.30711136457937277,-0.1164685580341919,-1.6490504789904854,-0.11471372277165032,-0.45719679209751324,-0.11540355744509044,0.34414970117260424,-0.11606744504879059,1.3565301080580843,-0.12206409785219118
0.13285762878236185,0.5523375969616332,-0.25689673188217543,-0.11041073586612182,-7.460990863940638,-0.1219300983429983,-0.5076841241178277,-0.1171365659785264,-2.025215918552178,-0.11460900167776586,-7.263272760456188,-0.11492614875170418,0.12131564083756148,-0.11581280289980174,2.400942429045785,-0.11531838280725258
0.14297199069158667,0.7032572576930327,-0.13078740595099966,-0.10020662830167804,-1.7157532709684593,-0.10572266474625891,-0.318726726455445,-0.10133280771989012,-4.320159555190401,-0.10094522062686793,-12.564864128152696,-0.10107916885433846,0.4062338813644506,-0.10074907151742017,2.817373558741917,-0.10211584663875488
0.10488669065833058,0.09137696275067848,0.9369116313036487,-0.10121335577321573,8.379121564003976,-0.10180378631583925,0.040078617665059615,-0.09975739578941499,-0.076789906732165,-0.09976110430275006,5.845396023714104,-0.09982152235796905,0.2006372421209033,-0.09978335765157709,0.3526280185836695,-0.10046395491204843
0.1125362950632486,-0.022710872944291173,0.6173666476466158,-0.10238619361556701,8.623565917535847,-0.10213694476160348,0.5604337699083296,-0.10095832992073896,1.4441496809092331,-0.10109558999221384,1.2632101734050654,-0.10129232813295021,0.28318448357903697,-0.10095338477298323,0.5044860721698494,-0.10189004503835643
-0.0037140830381058505,1.2084167605038005,-0.18812936684266912,-0.16391288898472658,-2.39736215038342,-0.16706306636709253,0.10827112125443111,-0.16190821757199172,-2.6242201949917168,-0.16002290349492235,-10.315342177565078,-0.16207829067321425,0.5258287191270742,-0.1635121579010539,4.783977559401388,-0.1703451908344856
0.16160223757415024,-0.5480711161382965,-0.18322842096515196,-0.13198875490738385,-9.237144369418466,-0.13645198032205028,0.04325942473802667,-0.13953029592730962,-1.4114170252553382,-0.1339436160797847,0.9314935948095546,-0.13941940729289792,0.4978418838374315,-0.14887317702998035,3.6862174466053115,-0.16368939964011608
0.21220393983211816,-0.6579303627778614,0.48406044318116753,-0.1555880363737315,-7.854623396007308,-0.17753204421261573,-0.2850540698779283,-0.21142680076621254,-0.5383415656480232,-0.2028578325189365,6.882571453341387,-0.20667158980274078,0.6746193260415055,-0.24512218404563768,5.0918620421320036,-0.1895251307001265
0.41373962736070274,-1.15238407690852,-0.07744109877643468,-0.26605755643478846,-5.954971601981913,-0.2890804059068014,-0.7018995985696271,-0.3245059491937935,0.9113681774204598,-0.31192777812095146,6.337689635899567,-0.3172111370326523,0.944127956435713,-0.3429455823728233,1.6867182098226958,-0.3431574942977193
0.16859850190610307,-0.10652614531015246,-0.16933807591784802,-0.15768255730498082,-5.584954697852557,-0.1630725433743272,-1.1117969618996824,-0.14049156426324083,-0.7222530145962962,-0.1512120835162539,1.5084516639708136,-0.15520614666667512,0.5990165686707329,-0.156033909783618,2.4969441828358976,-0.1923761431383595
0.18648235609309508,-0.01793182024424839,-0.8367593892630726,-0.1101111827491245,-5.416652841464986,-0.12214294965247827,-1.3033672668552798,-0.11279319145823948,-3.0116605992102987,-0.11167562900506042,-3.073834727384958,-0.1122155607139088,0.28619633845474,-0.11227635359691103,2.438088826141205,-0.11974925113357719
0.11331502911707098,0.33302409090130236,0.44974567156126966,-0.10311629665482393,5.217055053522103,-0.10309586406070025,-0.0938613818234868,-0.10215547497909976,0.6799777422648617,-0.10212555734481615,-0.07600562836968837,-0.10210921592837172,0.31121493328982097,-0.10196462079330885,0.09145171173085408,-0.10254662699013799
0.09343187192735107,-0.20488520985514444,0.22179281219572033,-0.11066552402897983,8.096143524632684,-0.11070100297786413,-0.182046336916446,-0.10906662389826027,0.22247585964698716,-0.10886533650115775,2.8307143738393754,-0.10932795894868888,0.4828295700258201,-0.10918924312062966,0.33377351166042124,-0.11008062465616526
0.04123971187021546,0.7607398884886306,-0.038518518509825544,-0.13263053528857674,-3.153302379307719,-0.13775852958726342,0.5841233870191164,-0.13001782487202754,-1.3249047681424826,-0.12784955845200288,-2.01360225124883,-0.12926558831052565,0.20341418213852894,-0.1305428041703683,1.4125589122492472,-0.13592366795455166
0.04943258115600472,-0.982220316932243,0.25599831324639666,-0.19127489003570225,-4.176018363869433,-0.21741994968069667,0.17085234688239478,-0.24909926904686347,-0.4638667291539489,-0.241183685494474,6.385953823461794,-0.248861293310597,0.7483069812939531,-0.2779403479919553,5.307733610823104,-0.24214982830326517
0.8717451251468474,-0.15067917396048205,0.30874000461634227,-0.6953104232729066,-9.311819564289344,-0.5811019886498224,-0.6225351806962939,-0.9039068356999322,3.6255990322516896,-0.7151226857476503,7.173427229430595,-0.7446234673175168,2.3953241059041592,-0.9630528004373634,-1.8044255395063957,-0.854805762769149
1.3105056167663465,0.5064304818643351,-1.3192105025855299,-0.8768892695081676,-3.233703761835459,-0.682629031212384,-2.3931170627654077,-1.0671058829693407,6.286545522928767,-0.8393283052600807,2.691321663800626,-0.8901822176805292,2.8969355798472094,-1.154628057515433,4.105855593799082,-1.126778888613083
0.4375273052586727,-0.7994536086849939,0.6960605721286007,-0.2824519678038772,-10.407274741154303,-0.33599901063624255,-0.4348351364824837,-0.49742834921005313,0.6995146502871753,-0.33719978952199975,2.1120372417479483,-0.3397404765234509,1.371387192930963,-0.46814668856587344,0.6351633536011981,-0.39910970780560073
0.16592576681091478,-0.4916961312298016,-0.14072250360862007,-0.12000333895418323,-3.5801804537703474,-0.12338985520038998,-0.12029419710072449,-0.11516994865475469,-1.4978458033861726,-0.11602697148666642,2.8329953260224223,-0.11629900521761252,0.15822336047898083,-0.11764672189902543,0.6489420359734459,-0.11962722983367778
0.11677339684766039,0.07017901733807672,0.5341227355161045,-0.10368105896222611,3.8786566869016372,-0.1033559283785298,0.43163719312312737,-0.10235824333687632,1.239169220667036,-0.10182983902795746,1.305110296040264,-0.10196945116819668,0.06595645064372664,-0.1023848128924937,0.2555519545463001,-0.10292374123757611
0.11206807645160473,-0.19953096693634248,0.021668084930320932,-0.10337982315211815,6.994257356875771,-0.10334177834643567,-0.33207441217347844,-0.10234403207442638,0.151434210297765,-0.10201708289435994,3.6525662342987553,-0.10209188936218923,0.029044873333981192,-0.10202403111023402,-0.04336631212715443,-0.10292559886432635
0.11575220169884579,0.7578636296028991,-0.6164084429254963,-0.11243488414433661,-1.8250562440880247,-0.12316000224190442,-0.5652501798301273,-0.11626525938502266,-1.450803183971839,-0.11349097673021667,-1.7817628736181153,-0.11483051864026572,0.29898661638648477,-0.11414741074960318,0.49679927387532974,-0.12073312667034229
0.599959312676412,-1.1206305523725586,-0.40315879366064644,-0.23813721368668644,-5.345003308102937,-0.2851075596140036,-1.0811665520661506,-0.3264810317278042,0.5293577857839169,-0.3048451580269554,5.866295556112352,-0.3080487847546222,1.0393873302019656,-0.3369592023814004,1.0438038060493502,-0.33218023673523017
1.2777601546228559,1.2185415396647667,-2.062199127755714,-0.8692299633323939,-6.359219802504719,-0.6694719802130121,-2.7615871586162286,-1.0892947673837006,5.684338153895705,-0.823741755964649,1.5059776221572996,-0.8771159932336032,2.920740163547352,-1.1686885595357839,3.4413749559395708,-1.1326886861226175
1.017136425942202,-0.06679734983211748,-0.19774156410402402,-0.6453804283854212,-6.930133893619132,-0.5823058239602391,-0.6259772318525545,-0.9336970513067759,3.1156360469779845,-0.7115303474202676,7.383594583754589,-0.737451651018702,2.606160509561791,-0.953890120820053,5.101088812745605,-0.9329861755525881
0.3405138449643152,-0.4920775992890469,0.48227591226315747,-0.1486760064337455,-10.999819008603781,-0.2034380756007804,0.0005100997002207853,-0.3575535124917167,-1.1212889768635288,-0.23602602242660334,2.3223602403170953,-0.22170671946458392,0.6504068541666922,-0.2905239524254397,1.7531354733331053,-0.266097510318824
0.17310497387843551,-0.2678677458304659,-0.2760200558662794,-0.11400203040109484,-3.237631930655162,-0.11729227283522307,0.3940799007509682,-0.11113527061887149,-1.8516641204815556,-0.10975465354324454,-2.128933827299414,-0.11030155721981531,0.46023230532688075,-0.11110946038660081,0.7002926111284593,-0.11241576062440453
0.10856923468639954,0.39329825508940547,0.48785416726394487,-0.10243041190754504,5.722083475144985,-0.10208528290957196,0.17538518827913913,-0.10098514034594278,-0.0845389478439905,-0.1006264500291286,1.5861950103392484,-0.10086740058398969,0.30012681550048703,-0.10044479178166131,1.0139652048274086,-0.1013619727006811
0.11256796973786566,-0.4922835395517215,0.6008420647283431,-0.10270838254194443,6.9548659071749634,-0.10292302096913074,-0.06408496732660085,-0.10206968300711441,2.186545909166366,-0.10192278101525687,1.9594628640364773,-0.10190230839387426,0.17692365786341938,-0.10179034973252236,0.297504145166882,-0.1022371318955037
0.11637137191567604,0.7171413014599883,-1.0273139423949593,-0.11754703532908779,-2.608123806320945,-0.12555897518222123,-1.0241385241051773,-0.1271232345105727,-2.784397337853381,-0.12047882980410493,-1.8798695562596963,-0.11972723970860734,0.1593954864509231,-0.12148386290186972,1.689341201773719,-0.12058343160708297
0.1799724425300995,-0.07458968530269433,-0.249909457451698,-0.16042246216901357,-5.805395556643583,-0.17038071405151226,-0.4054528096271074,-0.1572533178902862,-1.095852546629859,-0.16040245456473592,-0.8558090812116165,-0.16624702878073092,0.6599177667069442,-0.16492000336377907,2.929027057384754,-0.203177198478289
0.28436458042255014,-0.9624786797347612,0.18073834684218737,-0.31284187368515676,-5.838730889273288,-0.34998537525801293,-0.05127762073994895,-0.4857550991093743,1.4593382371767196,-0.3579621426910678,4.33650127181543,-0.363107423871072,1.1958038587011028,-0.45958926915734877,0.11255965055213867,-0.40213317944830834
0.2559358985791454,-0.994452963328209,-0.017332325600472594,-0.17078883462382552,-9.143873837365582,-0.2180226683231982,0.04093437776050033,-0.34521350287175695,-0.07510264767898187,-0.2604471701419156,7.093405336131182,-0.2527422106619452,0.7185338675543022,-0.28957311138569836,2.1452792751247296,-0.2726696310289636
0.12798002376381715,-0.3423394246468779,-0.19558057060306264,-0.14588326142044902,-7.7422093068874025,-0.13851450395619777,-1.213453768619599,-0.13162291661602166,-1.0318220842850028,-0.1364935776339247,4.845892378475569,-0.1442649104543267,0.4343601761080465,-0.14770375164655528,2.9722262570766937,-0.17669876697253617
0.16551227332664564,0.49124839669784476,-1.2303011221356606,-0.12194968858328452,-5.567574055094778,-0.11202937581941107,-0.646116781716549,-0.10416813965309558,-3.293729847931709,-0.10742403302744154,-9.135582647780595,-0.10962051123036141,0.08808371701742777,-0.10731878451095722,1.935485903610429,-0.11196621722976408
0.11256546807529867,0.4130158723708373,0.9389268662355849,-0.10165176665236456,6.6134001631387855,-0.1016640448796388,0.31356744255557045,-0.0985465248824524,1.846085932299446,-0.0983196669401148,-1.5870225299758067,-0.09866060474037837,0.2986944541339672,-0.09887700068044422,1.240480038218181,-0.09948490317988289
0.10741294980059538,-0.15952625312062993,0.2715988048776994,-0.101049362856988,11.403754660061207,-0.10181714604335933,0.2589316313336086,-0.10051215219189626,2.331243109305785,-0.10035809881041204,4.4860843576139775,-0.10042878275808594,0.6376543445740658,-0.1002216749844293,0.38012936911657874,-0.10112439580412845
0.09879051330210929,1.3277974823979164,-0.12844995662583159,-0.10031277463545055,0.8348173482212327,-0.10706692136341134,-0.259723557476593,-0.10285072012785035,-4.364251242176496,-0.1001105165396397,-10.96222859854389,-0.1006470988983778,0.6466583254745385,-0.10129726239695389,2.6968140017339572,-0.10139886382872772
0.1702096525692659,0.003930978312498689,0.19264127177254298,-0.1133544454400927,-5.045475953415677,-0.12185308876897114,-0.14858770490604925,-0.11664593781327366,-1.9286030132660603,-0.11481324627479023,-3.2292580804679187,-0.1150803993229494,0.5690732164598431,-0.11723066482852702,2.7763309495466206,-0.12110486009844418
0.14140794546018398,0.16798819621100083,0.7615691436429055,-0.11490136727599076,-7.503877427175874,-0.12190817343630792,0.3433576428025267,-0.10797186557136905,-1.1091873918466562,-0.10756968182695059,-1.387080742731691,-0.10882383955772884,0.26203495754772166,-0.11162068449293444,0.981097873117424,-0.11489333659396592
0.16090976404829957,0.11317517249697481,-0.20288352671154647,-0.1183381980923112,-4.5459482631451555,-0.11891432425745672,-0.022253597663634862,-0.11170418306394034,-1.9417435216529584,-0.11147584817408121,-0.6302820765653054,-0.11241758914213382,0.1697111340576493,-0.1128248784278651,0.5472978284498492,-0.1156935338678929
0.10385566037453116,1.1347958046927347,-1.1413048711239662,-0.12324773468032162,-3.5521581546009804,-0.11335806840611085,-0.7101884714872689,-0.10663672696677808,-3.2182997040757093,-0.10973014499818588,-7.77413043905061,-0.11161080977811279,0.4733634911310342,-0.11064464927391442,2.0757059535584945,-0.11441937181006956
0.16963605387366018,1.1090567115146213,-0.14310644879956377,-0.11101905098219651,-1.901375270032665,-0.10796546293343483,0.2191332020451143,-0.10609117350305007,-6.496943495514503,-0.10629912563281586,-14.091390540826463,-0.10769784524794997,0.7018523325077384,-0.10880856181599984,-0.09292597638334955,-0.11032032297632174
0.1027522559797752,-0.6263354732263995,0.9426125011570695,-0.10112337892795892,10.002995855135936,-0.10063636298947874,-0.15217362980952867,-0.09933797110956931,3.7711357497143467,-0.09961559478083702,7.311953674153399,-0.09991610580408081,0.3806737236474292,-0.09946132031512099,0.3018410737640192,-0.09992537265196001
0.10414585286415311,-1.4626990127596706,0.9349473551085868,-0.09963566008714475,13.767241417201175,-0.1005454767947452,0.6535621142863184,-0.09948801966677956,4.745551949531299,-0.09924191743420509,9.753451501394043,-0.09928403415038446,0.39466415132898236,-0.09944463632178799,0.7403104965319853,-0.09961060277747412
0.11126346823349316,0.22918824654586067,0.7968170798047497,-0.10203086286686146,6.963033102727678,-0.1016980213442009,0.2007604877484362,-0.10082555887785337,0.317368838653404,-0.10092349579180428,5.015024062775831,-0.10110927125851583,0.6100076096375214,-0.10111311258705727,0.20728840259534234,-0.10111131378786034
0.1101833639980013,-0.23588729217076917,0.6492810796268712,-0.10139336577048223,4.3934636912113225,-0.10268140506427251,-0.18407769841204025,-0.10075280962565564,0.4706703305333785,-0.10017437547160456,3.6923562018718123,-0.099992302448297,0.397733821893809,-0.10029750947698496,0.38305623413168416,-0.10148796078155951
0.11041893186266022,0.24243409344833974,0.6370341149644905,-0.10317172394392371,4.373818329095446,-0.10335673321777633,0.13520277830197258,-0.1011680063365917,0.044130463280221785,-0.10016174347569662,4.654181417309923,-0.10051652162034536,0.36038583274309016,-0.10100163408281479,0.28941766107949274,-0.10165037266786019
0.116025325418442,-0.07293952284163813,0.39378753131118543,-0.10337040924771908,4.974490234933367,-0.10276373245025923,0.013302507560082288,-0.10181605528995155,-0.13270178141401726,-0.10201138211225272,3.598381511027032,-0.10216168871947713,0.22363265616705028,-0.10171193496738734,0.2522953976197445,-0.10217229642384819
0.109345157556239,0.7031563253410686,0.6341504572611071,-0.10206668065801502,4.7047616760054,-0.1022787495082532,0.2836821400887198,-0.10077626893613757,1.094865549837403,-0.10056079798043643,2.3587055430155224,-0.10078189725172398,0.4607821811641811,-0.10073119206307704,0.7881090204585415,-0.1003217564976391
0.10151129571608898,-1.3485150739028269,0.8603492791683016,-0.10105503206822662,11.830311513214014,-0.10086580763414575,0.07490037979513939,-0.1002013050292543,3.819564576544519,-0.10010538140422924,3.6143706926365495,-0.10031264558307701,0.4513535555710952,-0.10028752856449145,0.2364637392348055,-0.1006468790360556
0.10318002996173949,-0.9809581062525066,1.3409845886370435,-0.1007303971124927,15.768459754360254,-0.10072491514090745,0.38824899939846197,-0.09986883485165701,4.46266325210084,-0.09997665383411736,11.847324989609797,-0.10013522119123629,0.7432903757069066,-0.09982888815619338,0.3012377447131621,-0.10001213853306537
0.7220600056619074,0.5083991495668773,0.3788271808928125,0.3039452370911401,0.2306171855333478,0.33748733058311065,0.478144777338338,0.6009120964218199,0.46427051073145803,0.35435217056547935,0.09188211246198658,0.10210572041186389,0.04225144672756558,0.11829875063689464,0.1809590384706977,0.4556681577872862,0.34179950912037177,0.2131270755671556,0.03301630265210967,0.07934955389899309,0.14079001281113182,0.10055465253670552,0.03352658817107864,0.34362902078137714,0.20423901830874577,0.11853788152256797,-0.036169749969748526,0.03605590985587949,-0.03605590985587873,0.18224464143739058,0.025620796223110903,0.27891183607546477,0.20383709787340298,0.10843966387262718,0.11771651199898946,0.03605590985587949,-0.03605590985587873,0.08369136849944908,0.04913095199152458,0.32442265464374254,0.15569655611420502,0.08154560027358171,0.02977503800919455,0.1739357856306968,-0.023003759093356994,0.06820049965993454,0.08707059692855301,0.42299523940197953,0.3840188926224825,0.21728052101529033,0.023566616506292055,0.10061080525291116,0.06559237541199119,0.17942752275237892,0.15932323821173774,0.5402326283897407,0.41253626085110345,0.39461103637152606,0.24861803422279685,0.2900772313034533,0.18668818522709166,0.3920841010958839,0.34151218405135225,0.7000332884893563
0.17649013851750536,0.17563993020995608,0.07938188421130407,0.002974713186070979,0.07169241433100176,-0.031597219370194794,0.1802851611275444,0.16286163204791818,0.2748720314369331,-0.029383168429181043,-0.017758477473083373,-0.04679658352373076,0.0032637020656437533,-0.036944811037109386,0.018104411111276583,0.07228797555825446,0.11032895047248253,-0.07576227557911286,-0.051710486928007886,-0.09312946416687191,0.13503441380936126,-0.08096987917917005,-0.004897244633383937,0.014633261877892653,0.11798616021681588,-0.07151653128035931,0.01095977195683369,-0.03481929437185447,0.034819294371853736,0.134854454132211,0.02215249480798619,0.01994950840772632,0.08860192389436909,-0.03670897000086307,0.1510677515488157,-0.03481929437185447,0.034819294371853736,-0.0670821158690226,-0.024101002314382572,-0.09678567715524454,0.14782092651780157,-0.03174697895304442,-0.008799384351965093,0.14492079306545705,0.011979488337585146,-0.042070190125076644,0.030718476202657524,0.041462680794154966,0.13502944109857398,-0.003813271839208023,0.0013800229138408342,-0.0817340679131799,-0.02864911121591408,-0.05756073955885849,0.052312773119202544,0.21097937448232937,0.27323115060398445,0.057094328215340245,0.07197690635551005,0.02171037329667956,0.03673580441034135,-0.0010203937502898518,0.24233924928844308,0.19908094042814967
0.04893618160937763,0.015434119753068774,-0.0055083342545617685,-0.015327515002320479,-0.016008301532887067,-0.03269485335592158,0.008694869270818683,0.003987800115651814,0.04316501381393683,-0.020080887568202154,-0.004463303668947265,-0.02450738419467801,0.003051791286747577,-0.015928634075663778,-0.012001589729456735,-0.027159725052178462,0.02275762555393937,-0.01482926604966486,-0.012789572776962646,-0.00695098444458206,0.01740984341172557,-0.01970835519157269,0.0071587441237792255,-0.027928374966346724,0.015568422091577059,-0.03552737313665497,0.006349512956836694,-1.1500481675377549e-07,1.1500481673410451e-07,0.04948760860269064,-0.014684716684853698,-0.015292568812599697,-0.0005275388444353605,-0.0240522379746128,0.033274051824852505,-1.1500481675377549e-07,1.1500481673410451e-07,0.007228824559585744,-0.010062252507428331,-0.07172541216358509,0.017634483272196255,0.0011701788379015895,-0.006410858749100039,0.04214217852671292,-0.0025722605491768,0.010699708364036484,-0.012998590132516223,-0.008467298774780727,0.008491137184473408,-0.03412962773505426,-0.013221317626262928,-0.02107375035593213,-0.017279215596023707,-0.036129251038148964,-0.013604111931400202,-0.02253563050162983,0.025614818186547417,-0.012193578129059166,-0.01526050574668413,-0.024480124895908662,-0.01309261829033425,-0.020478223591371778,-0.0024083347852525243,0.014472714074305428
-0.027963273039257358,0.015042202063260315,-0.04384041791842164,-0.030803578991315618,-0.010108652359678404,0.0040868566015699655,-0.02711025635339924,0.006804883445043289,0.017715540489884215,-0.02768829446974196,-0.016291007191631172,-0.04679043526489298,-0.02853950376621546,-0.006845989543786338,-0.01916424509537255,-0.011076697598292665,-0.012059858948725624,-0.011667211839693211,-0.03184381877501935,-0.014553587970174689,-0.019373388361143783,-0.008756845302575299,-0.017811086451016214,0.004125508148594409,-0.01326453024473875,-0.030461856321049745,-0.023420700527445392,-8.85321103584288e-06,8.8532110358361e-06,-0.010636252415301358,-0.04448885395714152,-0.01235824253741774,-0.025823504084448282,-0.046802566893188416,-0.015416021591216312,-8.85321103584288e-06,8.8532110358361e-06,-0.025850934952361824,-0.028996405414714193,0.01681662298750104,-0.004422305225717748,-0.031004216006885233,-0.02816459941152377,-0.006085554010366252,-0.010265833410563627,-0.021273818201727506,-0.018923826286674106,-0.012903137033102079,-0.032136120735258844,-0.003029649757693008,-0.05103083074789701,-0.034383127275215954,-0.026041857707639247,-0.03180525470067511,-0.02697520040009309,-0.0015201807054873962,0.027521836208352007,-0.06411148206773759,-0.001708256581995727,-0.018486113215883587,-0.04153708665017557,-0.02200668802750207,-0.0005037274131309724,0.014165928985602521
-28.249793458237438,-20.55794273772359,-12.38533924004124,-7.966360693342803,-7.2910413263330245,-9.471370697740529,-19.337154440107156,-22.45619034899146,-21.104583980215914,-8.491563877021772,-1.7593494722137946,-1.6366744018619217,-1.2392583445890237,-1.4766612119491989,-5.4796012478709875,-15.226329646517046,-11.864246406291427,-2.9089552905819405,-0.31473876721076804,0.2615079226050526,0.22630298330178042,0.009380330488559215,-1.4253851697336415,-9.697595917431816,-8.788925865908107,-1.0168301178684311,0.08835487855911263,-0.03221387804359685,0.03221387804359608,0.42898912613330276,-1.1659867441172997,-7.211511117481066,-8.678173197943213,-1.0007381058236273,0.17360387311950007,-0.03221387804359685,0.03221387804359608,-0.08579850753522784,-0.9981781673663658,-8.71800923485604,-9.14198246721414,-1.2795929805888633,0.1880725345577879,0.3829293210178311,-0.0980516659029824,-0.15150335825126413,-2.4835773633525027,-11.102585845435973,-14.886210152497272,-5.988522952708871,-0.37223056086552425,-0.7485500617241527,-0.9097244692808791,-2.741832514532556,-5.2754797782405145,-20.873760672653876,-21.390154514885634,-14.053625871774388,-10.828224616669731,-7.5079445033607595,-7.82124358835916,-10.76042839357594,-18.759193584613747,-27.5851602914612
-0.07016031011643895,-0.03556220762586296,-0.02373178533730053,0.005815778325700532,-0.02719486391073997,-0.02918889505188421,-0.07087611878798684,0.00038023970000526967,-0.019321744506618745,-0.012779180932572297,-0.016049757067160962,-0.013954491975813183,-0.003354951237428881,-0.01327859234297191,-0.009424134899663759,-0.008607134282108776,-0.014766496842841583,-0.010918071191130592,-0.008766054660584836,-0.008546881365704629,-0.004263454559296057,-0.011889870366775274,-0.010607774695830546,-0.017311289601236023,-0.006847840976748566,-0.0077941889550469795,-0.0027095596237285044,-3.177548592670857e-06,3.1775485926880357e-06,0.00048193318414095176,-0.014730582500566436,-0.020960279236924114,-0.023788942534776987,-0.008785821668022114,-0.0015376776510036866,-3.177548592670857e-06,3.1775485926880357e-06,-0.0004886221539449078,-0.008726822474757482,-0.013114370105580479,-0.018829314385591413,-0.008656777121524118,-0.005270006410855951,-0.0026073480949847195,-0.00020605902600621376,-0.0007395799620369609,-0.022282188348281422,-0.007383080157484486,-0.019104509455154007,-0.02264314913269471,-0.006624046658577729,-0.008284709266665866,-0.0033517814783348126,-0.009192742276205373,-0.00745537444499176,-0.010540130048868227,0.027684343709016814,-0.05005658988313038,-0.010151623198515822,-0.020939388708197285,-0.009271642345944376,-0.010776828273429627,-0.03024839154984486,-0.05057497302023828
-24.186669826770494,-17.645409069592557,-10.750442292409597,-7.249697678954221,-6.457476485661352,-7.61673073341282,-15.79447153704756,-19.04168430816992,-18.49058819712088,-7.149155306120661,-1.5371152218046504,-1.511575428618029,-1.1973601747565468,-1.0483671157626695,-4.456314333798169,-13.273431819275244,-10.651996371402944,-2.500572301567308,-0.11463960965284212,0.2226109525987541,0.4796442852717904,-0.03002237553560752,-0.8947257889079909,-7.925745088249953,-8.041929514355257,-0.8904544552256467,0.1171616347029633,-0.03224944789689011,0.03224944789689015,0.5137619890098898,-1.0766425989821549,-5.981462175798177,-7.419499184959644,-0.8238265880248797,0.3910821072912361,-0.03224944789689011,0.03224944789689015,-0.1732604959708647,-0.7791788719050636,-7.767738826831951,-7.744692657741905,-0.9482695273129407,0.15299702360061201,0.5089435085921469,-0.19654576219313563,-0.11033481347766796,-2.1652804588390713,-9.710536590921892,-13.300747013691778,-5.123304757334506,-0.5147300991785374,-0.6910188051459282,-0.782865320256357,-2.289281916032666,-4.207963218478613,-17.933562630613043,-18.547914814969605,-12.410024356337836,-9.875046990560657,-6.451983401395453,-7.366128992900606,-9.245410355337928,-15.952085125392715,-23.72320199067341
-0.22719890755365976,-0.21603734419556916,-0.1476988333674314,-0.18186128168885482,-0.07662335226459796,-0.10759707987742952,-0.14027239251054222,-0.33028155561118444,-0.18106888485797212,-0.09018158780005096,-0.015816646378817648,-0.01743908599497608,-0.008145636639900873,-0.00778966867097895,-0.11281405327468534,-0.1305906544480276,-0.15946428708328825,-0.0686445258819066,-0.006453712118317894,0.009390943816646326,0.11592975894054358,-0.006238175502312892,0.01626613879734584,-0.1354988146386777,-0.06695999390454976,-0.03531795603123084,0.024711980501934502,-0.002917503467154866,0.0029175034671548696,0.015770563545040098,0.03986146708715264,-0.11338606644541978,-0.04316357445308601,-0.03349267330154833,0.11954657295096184,-0.002917503467154866,0.0029175034671548696,0.0067335703224322375,0.013130917860360865,-0.09525848787910336,-0.16954215979663115,-0.015097946540191885,-0.005475457826577094,0.016510489485377974,-0.010867322976934931,-0.11025166421256931,-0.04226195790352166,-0.2325837350675779,-0.20082670499912045,-0.09649679040037942,0.00033277958919599273,-0.01585088604548664,0.03174505885996747,-0.004677516607490903,-0.014225480342220403,-0.29334192687117483,-0.34134979700328116,-0.12976394599462773,-0.12484422989196228,-0.062201014192456015,-0.0932790623703489,-0.1452267768350272,-0.25083291950211584,-0.28275058530371594
-2.1836404951682,-1.890427596657444,-1.1982239894665436,-1.7687094820150924,-0.8459574326755831,-0.8124566373424403,-1.7437566688021242,-3.141065865356951,-2.003167495571761,-0.9069610932841712,-0.23595592066987517,-0.20504221501011224,-0.16086835827695464,-0.24993785035538696,-0.9095328519494666,-1.192539575071446,-1.5291148648055048,-0.4686741715343037,0.06576664007841675,-0.010643609634480026,0.23171183167496728,0.009137910802861847,-0.009461161493570106,-0.9799124812980124,-0.7211177637114438,-0.19523567999616337,0.06694356463089421,-0.032938237118347896,0.032938237118347806,0.08605267664141032,-0.011030097483628617,-1.0326084601562604,-0.4108558362754723,-0.24529738530367698,0.23307586221900262,-0.032938237118347896,0.032938237118347806,-0.02311034382077292,-0.16444537950974256,-0.8134474806795177,-1.5878254088492467,-0.1328373806741693,0.027591071436255363,0.08448780426712227,0.004585751752805571,-0.11442899525797982,-0.30658935505023405,-2.1354365801079047,-1.7274465142807376,-0.9338974145873651,-0.04735370704291996,-0.36924606988487985,-0.13588421292920716,-0.2124911691279192,-0.23951209887009536,-2.6809572862562203,-2.7309442432576425,-1.0397277222558312,-1.024790335887972,-0.7639768777861549,-0.7965060207863845,-1.5035945806340734,-2.4139804396458486,-3.041541587455539
-0.038268694655872744,-0.00945407332313828,-0.015313136647101665,-0.026327246815836237,-0.008195799493305091,0.006993129519720687,0.0317065395503037,-0.012020791010486174,-0.01809305284885332,-0.0032417543745843673,0.007240488157755541,0.023960632217720004,-0.007917996475195853,0.012516010515143089,0.0076648358650982,-0.00030931688208981934,-0.007438042555453401,-0.003290342762585877,0.025282733157850512,0.017606571077544125,0.024592485053268446,0.008143026213110567,0.020284937963690793,-0.022291036711743612,-0.025270221452729377,-0.0026693104048065106,0.015645568262165063,1.1386601682183407e-05,-1.1386601682174094e-05,0.0042099813577879605,0.0006406816665923565,-0.0426459439154773,-0.010030535833428215,-0.0009858462279262892,0.022853504214208578,1.1386601682183407e-05,-1.1386601682174094e-05,0.002144560356224059,0.016754562453695502,-0.006507803820890536,-0.03530085029197042,-0.007762817703344067,-0.0007073679790238973,0.019306188974460233,0.006958399018722047,0.00138049174428351,-0.018174605359015265,-0.039938836465316915,-0.027930069228971018,-0.03054415610459112,0.002235739384836994,0.0009690756134588259,0.00729850514863196,0.0026418190671069017,0.00221809634092303,-0.028914112671413517,-0.006014867928551167,0.014461235669672985,-0.025553978202434137,-0.013503770598245242,-0.0028962323450768043,-0.03545942806188231,-0.015624960361332017,0.008128984420428975
-26.597624422003676,-19.201115801847966,-12.541091877347961,-7.583028139792739,-6.708354260953268,-8.74757738430809,-18.386768093293117,-20.789965661042142,-19.392795466613734,-8.538813984918361,-1.836751928115912,-2.0020756258791876,-1.3004388074416922,-1.6203705812203262,-5.364355633939202,-14.651894530873736,-11.40196450771143,-2.992682860943182,-0.6183193101018478,0.02976440284193645,0.009406681843594071,-0.27240754664784816,-1.6548382343163832,-9.105187856726529,-8.67428562818868,-1.2959504534362056,-0.1829832690277794,-0.031975190101896,0.03197519010189637,0.2063833953708858,-1.4506841607303549,-6.658360352568247,-8.257387775968343,-1.2479318227908076,-0.09179329620711202,-0.031975190101896,0.03197519010189637,-0.31444396640630645,-1.292799934438471,-8.512473398207728,-8.449927111997248,-1.4694986813730706,-0.16073437633562007,0.21892662262687937,-0.43945322056297065,-0.5545350331122295,-2.5958131608994215,-10.158839980866226,-14.00945099961118,-5.781539630884578,-0.6539535376668628,-0.8428137605845021,-1.3269592064609474,-2.6386931335113686,-5.21254634251843,-19.70132064218021,-18.491360638424883,-13.188067865503758,-10.078964979838089,-7.059692364464868,-7.223996624960769,-10.218829936655428,-16.68921800456492,-24.7484761593529
-0.08495424669791461,-0.019535447043950056,-0.016194839740091095,-0.005170820073051655,0.004392820099173631,0.008011203191435437,-0.0035729786145319593,-0.01952321737207322,-0.005597710729912414,0.0010031642889500208,-0.004300287025777886,-0.000223443517086256,-0.007384141687095043,0.01850865449258523,-0.002519410118580421,-0.011780794128506255,-0.0011729012724634481,0.013929888177446942,-0.004657027086293507,-0.010840551836897524,-0.009105792390607076,0.008234631835434502,-0.01777961786553015,0.004372040309545181,-0.020461855071543453,-0.0006731906311851429,0.008153641104354275,-6.805653750211973e-06,6.805653750214658e-06,-0.008255890240856812,-0.0024087408963896165,0.01169665785873856,-0.005996871503086261,-0.017175586705346923,-0.012566329847156254,-6.805653750211973e-06,6.805653750214658e-06,-0.002966481112894572,-0.013389547496139725,0.0012454841840725513,0.013314220200007741,-0.016659924434870934,-0.005892082392684487,0.011479858348482707,-0.010467862744909228,0.007456361804158377,0.0014139452649541057,5.3110523145039426e-05,0.0049974719332957045,0.007932926815809784,-0.006835137547877658,-0.008009124642542212,-0.013937698089906119,-0.004372302764609863,0.0010759850496407971,-0.013439955401589895,0.000913464051416128,-0.013570319387219514,0.0047569665331766015,-0.022988952468044575,-0.0020048774346367805,-0.022296127378460342,0.004765977223452318,-0.01605656064899804
-24.24470411554158,-18.6922673828142,-11.363845643670045,-7.349412494032794,-6.6585076133092835,-8.396417266611994,-17.472373248312344,-18.912579487768106,-18.866324346300317,-8.352721272028882,-1.8525188397264925,-1.8449694688209295,-1.3701195457144555,-1.4874197731220307,-5.110557485165055,-13.310369324317161,-10.23628849452785,-2.9234633842655233,-0.4878894558256569,0.15593692257525632,0.30220622592379964,-0.17730930586644905,-1.514078330845721,-8.991609460941538,-7.9374103654822745,-1.1333155101617196,-0.03922510052357325,-0.03201943499719513,0.032019434997194604,0.38495982767323356,-0.8623644806645191,-7.006982925185106,-7.357884104805921,-1.3082404615244576,0.2459425166440942,-0.03201943499719513,0.032019434997194604,-0.24927427761568133,-1.1667830479193186,-7.8236392639186585,-7.761560028745486,-1.2508183734157698,-0.07550811428973188,0.3580102226945258,-0.28840203687844906,-0.3777396194053303,-2.804829910955265,-9.711537368078991,-12.761262019081009,-5.808439913281863,-0.43441355883707516,-0.9161179340273838,-0.9174578282444817,-2.7131710479821476,-4.786269952978844,-18.812116081685286,-18.520505522299782,-12.046129966347422,-9.370971033327649,-7.364039950339033,-7.10695387644929,-9.352445531359402,-15.675367341195816,-23.388203657499542
-0.4762881108617548,-0.30611329165500784,-0.14074397609472641,-0.08603313542915654,-0.06413894535110545,-0.10440075617174699,-0.24815903080296922,-0.33172764804510235,-0.30833653930194205,-0.09795533711798603,0.0018840824260739544,0.004363550211630149,0.017384884765081106,0.0222507815921622,-0.049175160727072745,-0.20003962164664157,-0.14103922832997257,-0.04186143808914709,-0.07555540765933086,-0.003106759672222968,-0.08852850073982257,-0.0335096870783705,0.003617488680265954,-0.10918696037757386,-0.08623833746390422,-0.004786263946401474,0.006151963746939855,-0.0005432745724118001,0.0005432745724118119,-0.043654332484995895,0.014512117921269297,-0.07460181533178056,-0.0700265273663179,0.024121393424541192,-0.0742049608634787,-0.0005432745724118001,0.0005432745724118119,0.015543730175510058,0.013100775115609505,-0.07325223551472848,-0.10128902389209837,0.0031333954909835587,-0.004333870056775117,-0.05154505448335907,0.008226562393237314,-0.05647531291455635,-0.010730483792858451,-0.1343137949094916,-0.17845995644961657,-0.047202493151405456,0.03834220678655654,0.02450613324960042,0.007132463984812299,-0.006660298174508785,-0.0501797224604779,-0.27093103385375655,-0.31410893399527784,-0.1585943935008925,-0.11126301910120961,-0.07230725096244597,-0.062081118013057136,-0.1126735034528874,-0.2389856837962241,-0.40557918753652733
-28.2375782937986,-20.535894900577674,-12.81807551737063,-8.222587634568614,-7.696365755698642,-9.832591541628707,-19.300266647135587,-21.65697247942387,-21.225987032963577,-9.025848212779392,-2.0722665962906337,-1.9843738332076943,-1.4544452607974374,-1.6849444979572348,-5.693129117781411,-15.0543258110635,-11.942096760491424,-3.2137677051632267,-0.47628353839328297,0.1651130572962496,0.22254235160017266,-0.1268688568689462,-1.634726254101433,-9.878421034878253,-9.269975588240559,-1.1961894895422285,-0.02029712381855249,-0.03132272192761326,0.03132272192761302,0.38892023506990664,-1.3494336136696548,-7.434485040648652,-8.844745055205172,-1.1710702294920228,0.1731012565895739,-0.03132272192761326,0.03132272192761302,-0.23161873642820652,-1.1275109437639612,-8.940396367296577,-9.23356254689085,-1.544323662909557,-0.014348219065089257,0.3882935247753833,-0.2552319997539605,-0.4254088957264763,-2.7734947731020005,-10.967074328549204,-14.841826346108482,-6.2731090800985125,-0.5051163857458282,-0.9225741688484129,-1.2165102505642964,-2.92438910012372,-5.570624438161737,-20.402228395117213,-20.610322111330525,-14.236606262461292,-11.549698917151968,-7.9832141437850215,-8.167715867361949,-10.867048435076207,-18.540281618406585,-26.51341627671792
-0.5491697048210805,-0.333832326285885,-0.2051871877292121,-0.16524926847001312,-0.15910222358544324,-0.15816461947526564,-0.3006276980520513,-0.40905482778470315,-0.35024089625998156,-0.14941675800234464,-0.05670563073641885,-0.016638961985089018,-0.025241918343463066,-0.007296233615083711,-0.1183312401157485,-0.27968868702261745,-0.22633913744700518,-0.03561035172200354,0.11319278435458195,0.033238333414019036,-0.1797009078680299,0.02337092800778087,-0.015614540980946062,-0.20617394988185653,-0.18530465129602464,0.004470142510585194,0.015333977905616311,-0.0006877335866760141,0.0006877335866760001,-0.2759797514537865,-0.007880098024404833,-0.17377456450845244,-0.15113508030781805,-0.0020427389653718767,-0.19459216790614062,-0.0006877335866760141,0.0006877335866760001,-0.011439046715587166,-0.008795642038301629,-0.13390468729556165,-0.1794805003759005,-9.601269911899422e-05,0.016947475793828763,-0.3034851914783584,0.016499931116431967,0.03586617159046943,-0.06375834764053387,-0.27857288777055783,-0.25602202578565575,-0.12044716085158388,0.0001164594243812956,0.0024055216690999724,-0.007881924150939674,-0.05094384332880495,-0.1345869143520262,-0.3685871156371005,-0.4093703435868437,-0.20952464019316397,-0.18127995993537868,-0.17101679294016447,-0.11403925126003941,-0.1947155395215234,-0.3212443047427769,-0.4800100932060794
-28.10298658460941,-20.45308826449759,-12.765825912194709,-8.200099951666004,-7.674161809261917,-9.801271522030712,-19.22360387474979,-21.571431771150536,-21.136185054895165,-8.99118775914649,-2.0595163267231023,-1.9671210357008053,-1.4461944230772843,-1.6812493542569507,-5.672456204039585,-14.994894374516226,-11.892359648966611,-3.2007288482953546,-0.45573480856966,0.17286308581848922,0.2290325618526429,-0.11730899364990653,-1.6244387517636938,-9.851385871643311,-9.24048540937265,-1.187486039575893,-0.0075891687830399,-0.031235044706070938,0.031235044706071066,0.3831660028969292,-1.3399310330828464,-7.411997370469129,-8.812361543293369,-1.1648818251135928,0.1827570996159658,-0.031235044706070938,0.031235044706071066,-0.22355957335707904,-1.1172427540225771,-8.911465417367866,-9.206242219011147,-1.5395330727307852,-0.0008550656896858279,0.38814192937864095,-0.2428689500637708,-0.4156574179029906,-2.7571276662815607,-10.932714227424817,-14.786710726663689,-6.252391498471621,-0.49960908627211553,-0.9163735252824746,-1.207711917753037,-2.9131080349831757,-5.54639032783909,-20.321382440429694,-20.52341406752832,-14.180001785491164,-11.513412013873559,-7.955046747891326,-8.136229889752208,-10.826015373691138,-18.459484822544226,-26.390603195494265
